svm_type c_svc
kernel_type rbf
gamma 0.333333
nr_class 2
total_sv 162
rho 0.974002
label 1 0
nr_sv 13 149
SV
1 1:-1.85054 2:9241.46 3:1 
0.1302031650253871 1:-2.01353 2:1.08239 3:1 
1 1:-1.69765 2:6.47413 3:1 
1 1:-1.93643 2:3.23885 3:0.8 
1 1:-2.24943 2:2.36026 3:0.8 
0.09921425327230061 1:-2.01438 2:2.06669 3:0.6 
1 1:-2.37827 2:1.66324 3:0.9 
1 1:-2.22474 2:1.4091 3:1 
1 1:-2.41722 2:2.4681 3:1 
1 1:-2.26297 2:1.27032 3:1 
1 1:-1.95814 2:0.896571 3:1 
1 1:-1.78357 2:5.18634 3:1 
0.8281325064033478 1:-2.0023 2:3.08328 3:0.9 
-0.0261365624781168 1:-1.62595 2:94511 3:0 
-0.0255025449692784 1:-1.46706 2:94524.1 3:0 
-0.02596151445601413 1:-1.92228 2:94533.9 3:0 
-0.02609489279672883 1:-1.49911 2:94546.6 3:0 
-0.02622922066226713 1:-1.86736 2:94559.1 3:0 
-0.02604461652573759 1:-2.0392 2:94568.7 3:0 
-0.02606179992445989 1:-1.54374 2:94580.2 3:0 
-0.02595193650051114 1:-1.4355 2:94591.8 3:0 
-0.0264194147571582 1:-1.38918 2:94604.2 3:0 
-0.02617240563301282 1:-2.13853 2:37845.7 3:0.2 
-0.01283192138429476 1:-2.01123 2:12.6371 3:0 
-0.0162072957995406 1:-2.4781 2:26.9872 3:0 
-0.002479333403100113 1:-1.91577 2:57.1631 3:0 
-0.005603608846781183 1:-1.74956 2:68.342 3:0 
-0.02041188349633983 1:-1.4465 2:80.8959 3:0 
-0.01983317663695033 1:-1.50028 2:104.007 3:0 
-0.01746331671677507 1:-1.58803 2:117.417 3:0 
-0.02094338926580573 1:-1.7871 2:165.514 3:0 
-0.02582249354622451 1:-1.39082 2:179.087 3:0 
-0.02588370387569811 1:-2.37038 2:169.624 3:0.2 
-0.00463603346355268 1:-2.66953 2:26.3648 3:0 
-0.001440184279578436 1:-2.56014 2:16.219 3:0 
-0.01347983272579103 1:-3.06078 2:29.4019 3:0 
-1 1:-2.75027 2:2.30208 3:0.5 
-0.8360314422624433 1:-2.52555 2:3.81711 3:0.1 
-1 1:-2.91452 2:1.28594 3:1 
-0.002452233332333993 1:-2.90201 2:12.2043 3:0.5 
-1 1:-2.94889 2:1.59253 3:0.7 
-0.01774384127624434 1:-1.51274 2:20.7552 3:0 
-0.01767790892318649 1:-1.87505 2:30.0137 3:0 
-0.01781493940971574 1:-1.38311 2:41.2123 3:0 
-0.02359698692043805 1:-1.83189 2:54.3567 3:0 
-0.02360149069665759 1:-1.81441 2:65.8952 3:0 
-0.008737257777060688 1:-1.8874 2:78.8175 3:0 
-0.02245055782538051 1:-1.57532 2:114.013 3:0 
-0.0259615084968392 1:-1.21318 2:125.805 3:0 
-0.01759577787466763 1:-1.60439 2:137.014 3:0 
-0.01575806050072731 1:-1.38408 2:150.721 3:0 
-0.02108372858387649 1:-1.58949 2:193.433 3:0 
-0.0258554673627579 1:-1.42665 2:202.884 3:0 
-0.02545893154047058 1:-1.89314 2:216.042 3:0 
-0.02395194288596358 1:-1.73875 2:228.244 3:0 
-0.02645061972469415 1:-1.53759 2:237.737 3:0 
-0.02618456473908481 1:-1.46193 2:249.996 3:0 
-0.0259519365005047 1:-1.39057 2:259.33 3:0 
-0.02606179992445989 1:-1.59898 2:272.227 3:0 
-0.02550254496927867 1:-1.68151 2:285.903 3:0 
-0.02621421179646261 1:-1.37083 2:299.7 3:0 
-0.01238097929984088 1:-1.96112 2:15.1406 3:0 
-0.01623152086874895 1:-1.40151 2:24.6241 3:0 
-0.02228784690645245 1:-1.34747 2:37.9596 3:0 
-0.02474433462857917 1:-1.54442 2:50.9475 3:0 
-0.01112514897841103 1:-1.49191 2:60.141 3:0 
-0.0009916024843587556 1:-1.92966 2:72.4975 3:0 
-0.02413817195088541 1:-2.03113 2:85.9392 3:0 
-0.02571301256306807 1:-1.74301 2:99.7266 3:0 
-0.02286675816540007 1:-1.84276 2:111.592 3:0 
-0.01415491215417577 1:-1.66773 2:135.823 3:0 
-0.01570652840872988 1:-1.6943 2:149.633 3:0 
-0.02105002926648834 1:-1.54425 2:163.44 3:0 
-0.02641310727832791 1:-1.71847 2:174.66 3:0 
-0.02627390677567293 1:-1.31189 2:184.123 3:0 
-0.02313941483824222 1:-2.18923 2:197.48 3:0 
-0.02627414689426838 1:-1.49988 2:210.746 3:0 
-0.0258081196891915 1:-1.13325 2:220.512 3:0 
-0.02423891025620956 1:-1.1783 2:230.994 3:0 
-0.01531095993222545 1:-1.62809 2:195.247 3:0.1 
-0.002687513239035477 1:-1.8203 2:10.5955 3:0 
-0.005571898504382725 1:-2.08986 2:23.9104 3:0 
-0.0124758787022785 1:-1.41391 2:35.9579 3:0 
-0.004715240262248508 1:-1.46276 2:45.1783 3:0 
-0.01501156661011266 1:-1.2499 2:68.731 3:0 
-0.0151447445257329 1:-1.75935 2:46.5759 3:0.4 
-0.576744483290199 1:-1.66155 2:7.24338 3:0.4 
-0.0258756949975279 1:-1.45474 2:96357.5 3:0 
-0.02589556937154902 1:-1.28441 2:96370.6 3:0 
-0.02588869003892791 1:-1.19746 2:96382.6 3:0 
-0.02598522331673392 1:-1.46182 2:96392.2 3:0 
-0.02595359270430286 1:-1.55998 2:96402.7 3:0 
-0.02588554769553625 1:-1.22551 2:96415.1 3:0 
-0.02598772482634032 1:-1.37122 2:96428.6 3:0 
-0.02617240563301276 1:-1.72056 2:96440.7 3:0 
-0.02622656820428088 1:-1.44182 2:96452.1 3:0 
-0.02593224228082164 1:-1.29411 2:96463.7 3:0 
-0.02630119407612203 1:-1.54658 2:96474.5 3:0 
-0.02595821010170946 1:-2.75681 2:96484.2 3:0 
-0.02628258186098059 1:-2.58068 2:96503.5 3:0 
-0.02625062134030309 1:-2.26862 2:96515 3:0 
-0.0262753246353048 1:-2.53206 2:96524.4 3:0 
-0.02623177189786385 1:-2.02042 2:96535.9 3:0 
-0.02598798681181169 1:-1.86838 2:96549.6 3:0 
-0.02590266703859662 1:-2.64057 2:96563.1 3:0 
-0.02598972186786935 1:-3.29375 2:96574.3 3:0 
-0.02605434412041691 1:-2.66484 2:96586.8 3:0 
-0.02598772482634037 1:-2.84957 2:96639.7 3:0 
-0.02577985746104838 1:-3.06252 2:96653.2 3:0 
-0.02593224228082164 1:-2.75804 2:96663.4 3:0 
-0.02588869003892919 1:-2.55721 2:96675.2 3:0 
-0.02630119407612225 1:-3.09868 2:96688.8 3:0 
-0.02597106506239572 1:-2.99377 2:96700.3 3:0 
-0.02598865683059176 1:-3.13016 2:96709.2 3:0 
-0.02587097738403038 1:-3.17269 2:96720.7 3:0 
-0.025958893827768 1:-2.74408 2:96731.9 3:0 
-0.02627939804402002 1:-3.21741 2:96743.7 3:0 
-0.02641941475715803 1:-3.51704 2:96757 3:0 
-0.02571449315406771 1:-2.82702 2:96769.7 3:0 
-0.0257040344432013 1:-3.60154 2:96780.4 3:0 
-0.02596802451569963 1:-3.5153 2:96790.4 3:0 
-0.02562706536539261 1:-3.51603 2:96802.9 3:0 
-0.02593224228079499 1:-3.25427 2:96814.4 3:0 
-0.02627748752711917 1:-2.80766 2:96823.5 3:0 
-0.02609489279672872 1:-3.3248 2:96836.4 3:0 
-0.02597106506248403 1:-2.99639 2:29057.2 3:0.1 
-0.02596555430355019 1:-3.0729 2:19440.4 3:0.5 
-0.0169503385775252 1:-3.31195 2:10.7864 3:0.1 
-1 1:-2.66327 2:3.14099 3:0.4 
-0.004691771505327469 1:-1.60469 2:22.2747 3:0 
-0.01101868068433605 1:-1.59028 2:34.1589 3:0 
-0.01760251948283021 1:-1.35368 2:44.177 3:0 
-0.007632507530961388 1:-2.30307 2:70.4075 3:0 
-0.01295972963989561 1:-2.29154 2:17.3918 3:0.1 
-0.01660162724852848 1:-1.57007 2:56.8816 3:0 
-0.002687696976292564 1:-1.44862 2:67.5826 3:0 
-0.0197637416864061 1:-1.23897 2:77.8159 3:0 
-0.01994468320104298 1:-1.3915 2:91.4199 3:0 
-0.008133962349266555 1:-1.69901 2:105.095 3:0 
-0.01773997415613341 1:-2.0665 2:118.88 3:0 
-0.02589100406133621 1:-1.44553 2:132.641 3:0 
-0.02559330399754067 1:-2.39187 2:146.211 3:0.1 
-0.8850263219936183 1:-2.18376 2:5.78025 3:0.1 
-0.002567094888097983 1:-2.49244 2:25.7428 3:0 
-0.01316965420033041 1:-1.79981 2:58.8132 3:0 
-0.02059611399270034 1:-1.16843 2:72.5463 3:0 
-0.02068673425491907 1:-1.38478 2:83.3523 3:0 
-0.01958336601100652 1:-1.6451 2:93.2537 3:0 
-0.0241815561598262 1:-3.30947 2:106.726 3:0.1 
-1 1:-2.65852 2:1.69964 3:0.4 
-0.01324029962669701 1:-2.3945 2:34.3034 3:0 
-0.01891525383213644 1:-2.46465 2:48.1801 3:0 
-0.02091901121225592 1:-2.50936 2:61.5949 3:0 
-0.01222419768774925 1:-2.51801 2:71.1967 3:0 
-0.01709988110581179 1:-2.84302 2:42.1473 3:0.1 
-0.001130808715613785 1:-2.74709 2:14.5431 3:0.1 
-0.006613892208722816 1:-2.86 2:12.9406 3:0 
-0.0197624665778527 1:-3.7214 2:19.4779 3:0.1 
-0.01485068297447806 1:-2.94858 2:22.2905 3:0.1 
-0.9435779062070219 1:-2.99859 2:1.15627 3:0.8 
-0.006005994837032425 1:-2.6111 2:17.9127 3:0.1 
-0.008566918319233917 1:-2.82197 2:15.134 3:0.1 
