svm_type c_svc
kernel_type rbf
gamma 0.333333
nr_class 2
total_sv 206
rho 0.960097
label 1 0
nr_sv 37 169
SV
1 1:-1.85054 2:9241.46 3:1 
1 1:-1.69765 2:6.47413 3:1 
1 1:-1.93643 2:3.23885 3:0.8 
1 1:-2.24943 2:2.36026 3:0.8 
1 1:-2.0434 2:2.71552 3:0.8 
1 1:-2.01438 2:2.06669 3:0.6 
1 1:-2.37827 2:1.66324 3:0.9 
1 1:-2.22474 2:1.4091 3:1 
1 1:-2.41722 2:2.4681 3:1 
1 1:-2.26297 2:1.27032 3:1 
1 1:-1.78357 2:5.18634 3:1 
0.3794127750075393 1:-2.0023 2:3.08328 3:0.9 
1 1:-1.29832 2:9976.65 3:1 
1 1:-2.17697 2:1.23777 3:1 
0.7822721242677357 1:-2.07391 2:0.951692 3:0.9 
1 1:-1.75765 2:6.13675 3:1 
1 1:-2.60839 2:1.32725 3:1 
1 1:-2.71833 2:2.13285 3:0.6 
1 1:-2.50617 2:1.35471 3:1 
1 1:-2.14313 2:1.02722 3:1 
1 1:-2.76893 2:1.29697 3:0.7 
1 1:-2.13211 2:1.18603 3:0.9 
1 1:-2.23552 2:1.31253 3:1 
1 1:-2.24782 2:1.46783 3:0.9 
1 1:-2.15129 2:1.0652 3:1 
1 1:-2.06391 2:2.32979 3:0.7 
1 1:-2.40332 2:14.386 3:1 
1 1:-2.1923 2:1.35945 3:1 
1 1:-2.22358 2:4.15463 3:0.2 
1 1:-2.22267 2:3.68227 3:0.7 
1 1:-2.20488 2:1.15356 3:1 
1 1:-2.17426 2:1.12173 3:0.8 
1 1:-2.17622 2:1.28899 3:1 
1 1:-2.752 2:1.16223 3:1 
1 1:-2.79386 2:6.16905 3:0.2 
1 1:-2.89768 2:2.12414 3:0.4 
1 1:-2.56191 2:1.87308 3:0.8 
-0.03982379678369663 1:-1.62595 2:94511 3:0 
-0.03937524220652322 1:-1.46706 2:94524.1 3:0 
-0.03979999205927359 1:-1.92228 2:94533.9 3:0 
-0.03992420137832481 1:-1.49911 2:94546.6 3:0 
-0.04034989722083254 1:-1.86736 2:94559.1 3:0 
-0.04003469897339201 1:-2.0392 2:94568.7 3:0 
-0.04003705344831465 1:-1.54374 2:94580.2 3:0 
-0.04032175778122005 1:-1.4355 2:94591.8 3:0 
-0.03980783918063796 1:-1.38918 2:94604.2 3:0 
-0.03950922613821656 1:-2.13853 2:37845.7 3:0.2 
-0.02288926149147915 1:-2.4781 2:26.9872 3:0 
-0.006232454699981264 1:-1.91577 2:57.1631 3:0 
-0.005329744789275361 1:-1.74956 2:68.342 3:0 
-0.03060139273936574 1:-1.4465 2:80.8959 3:0 
-0.03045937235508284 1:-1.50028 2:104.007 3:0 
-0.02670588010261662 1:-1.58803 2:117.417 3:0 
-0.03211770910848877 1:-1.7871 2:165.514 3:0 
-0.03971639544879808 1:-1.39082 2:179.087 3:0 
-0.03972487584373777 1:-2.37038 2:169.624 3:0.2 
-0.02493728053252907 1:-2.46732 2:13.707 3:0 
-0.009314540312279185 1:-2.66953 2:26.3648 3:0 
-0.021929678249136 1:-3.06078 2:29.4019 3:0 
-0.4349799554678807 1:-2.91452 2:1.28594 3:1 
-0.02536978503268099 1:-1.51274 2:20.7552 3:0 
-0.02657472048797865 1:-1.87505 2:30.0137 3:0 
-0.02745139364533214 1:-1.38311 2:41.2123 3:0 
-0.03589548224734229 1:-1.83189 2:54.3567 3:0 
-0.03516942971985532 1:-1.81441 2:65.8952 3:0 
-0.01499952447023317 1:-1.8874 2:78.8175 3:0 
-0.03407482866628847 1:-1.57532 2:114.013 3:0 
-0.04034988474001983 1:-1.21318 2:125.805 3:0 
-0.02601372921376928 1:-1.60439 2:137.014 3:0 
-0.02525711490749843 1:-1.38408 2:150.721 3:0 
-0.032143398370137 1:-1.58949 2:193.433 3:0 
-0.03981478179891446 1:-1.42665 2:202.884 3:0 
-0.04004451030211464 1:-1.89314 2:216.042 3:0 
-0.03695862370594211 1:-1.73875 2:228.244 3:0 
-0.0403498846512918 1:-1.53759 2:237.737 3:0 
-0.04028015156753167 1:-1.46193 2:249.996 3:0 
-0.03978056441135197 1:-1.39057 2:259.33 3:0 
-0.04020294186123918 1:-1.59898 2:272.227 3:0 
-0.03977607310225717 1:-1.68151 2:285.903 3:0 
-0.03938140528211642 1:-1.37083 2:299.7 3:0 
-0.1334823829844018 1:-1.96112 2:15.1406 3:0 
-0.02661861619917412 1:-1.40151 2:24.6241 3:0 
-0.03369501881872844 1:-1.34747 2:37.9596 3:0 
-0.03718284239087988 1:-1.54442 2:50.9475 3:0 
-0.01679822086789 1:-1.49191 2:60.141 3:0 
-0.003461609373466901 1:-1.92966 2:72.4975 3:0 
-0.03723235059684958 1:-2.03113 2:85.9392 3:0 
-0.04017929849626967 1:-1.74301 2:99.7266 3:0 
-0.03507995108292222 1:-1.84276 2:111.592 3:0 
-0.0227300635705197 1:-1.66773 2:135.823 3:0 
-0.02230737533933447 1:-1.6943 2:149.633 3:0 
-0.03254882983032886 1:-1.54425 2:163.44 3:0 
-0.03972673948161853 1:-1.71847 2:174.66 3:0 
-0.03950040672262412 1:-1.31189 2:184.123 3:0 
-0.03564916264426139 1:-2.18923 2:197.48 3:0 
-0.0397725461916727 1:-1.49988 2:210.746 3:0 
-0.0395138484561301 1:-1.13325 2:220.512 3:0 
-0.03710566410584193 1:-1.1783 2:230.994 3:0 
-0.02332755640388535 1:-1.62809 2:195.247 3:0.1 
-0.00576324714543606 1:-2.08986 2:23.9104 3:0 
-0.01951860045748655 1:-1.41391 2:35.9579 3:0 
-0.008770092131161238 1:-1.46276 2:45.1783 3:0 
-0.02332252208856799 1:-1.2499 2:68.731 3:0 
-0.02206979428201586 1:-1.75935 2:46.5759 3:0.4 
-0.9805760049711818 1:-1.66155 2:7.24338 3:0.4 
-0.03982471697627143 1:-1.45474 2:96357.5 3:0 
-0.03998205363742746 1:-1.28441 2:96370.6 3:0 
-0.03984680033506438 1:-1.19746 2:96382.6 3:0 
-0.03939462750664324 1:-1.46182 2:96392.2 3:0 
-0.03984680033506621 1:-1.55998 2:96402.7 3:0 
-0.0397982812073075 1:-1.22551 2:96415.1 3:0 
-0.03984621855949239 1:-1.37122 2:96428.6 3:0 
-0.03984680033506616 1:-1.72056 2:96440.7 3:0 
-0.03990795521063473 1:-1.44182 2:96452.1 3:0 
-0.0397982812073075 1:-1.29411 2:96463.7 3:0 
-0.03983321891878266 1:-1.54658 2:96474.5 3:0 
-0.04034989412194728 1:-2.75681 2:96484.2 3:0 
-0.03982900598804279 1:-2.58068 2:96503.5 3:0 
-0.03977711341689044 1:-2.26862 2:96515 3:0 
-0.04017335298083152 1:-2.53206 2:96524.4 3:0 
-0.03984680033506616 1:-2.02042 2:96535.9 3:0 
-0.03992420137832475 1:-1.86838 2:96549.6 3:0 
-0.03977729126418922 1:-2.64057 2:96563.1 3:0 
-0.03945185431869275 1:-3.29375 2:96574.3 3:0 
-0.03991975575052736 1:-2.66484 2:96586.8 3:0 
-0.03958018352252884 1:-2.84957 2:96639.7 3:0 
-0.03950922613821645 1:-3.06252 2:96653.2 3:0 
-0.04013366462585582 1:-2.75804 2:96663.4 3:0 
-0.03996852602465489 1:-2.55721 2:96675.2 3:0 
-0.04008129564307805 1:-3.09868 2:96688.8 3:0 
-0.03982428535227706 1:-2.99377 2:96700.3 3:0 
-0.03984860246231103 1:-3.13016 2:96709.2 3:0 
-0.03984293188366062 1:-3.17269 2:96720.7 3:0 
-0.03991975575052753 1:-2.74408 2:96731.9 3:0 
-0.03984621855949233 1:-3.21741 2:96743.7 3:0 
-0.03982050219910077 1:-3.51704 2:96757 3:0 
-0.04034989722083426 1:-2.82702 2:96769.7 3:0 
-0.0393814052821162 1:-3.60154 2:96780.4 3:0 
-0.04034989379450377 1:-3.5153 2:96790.4 3:0 
-0.04026288321746629 1:-3.51603 2:96802.9 3:0 
-0.04010178543125542 1:-3.25427 2:96814.4 3:0 
-0.03992335218144422 1:-2.80766 2:96823.5 3:0 
-0.03951825979403895 1:-3.3248 2:96836.4 3:0 
-0.0397916660610157 1:-2.99639 2:29057.2 3:0.1 
-0.03996852602465473 1:-3.0729 2:19440.4 3:0.5 
-0.008673396456692423 1:-1.60469 2:22.2747 3:0 
-0.01629236248264624 1:-1.59028 2:34.1589 3:0 
-0.0252506624266983 1:-1.35368 2:44.177 3:0 
-0.01448059398817397 1:-2.30307 2:70.4075 3:0 
-0.001230804148978395 1:-2.07625 2:43.3393 3:0 
-0.02397304080648513 1:-1.57007 2:56.8816 3:0 
-0.006907090536833336 1:-1.44862 2:67.5826 3:0 
-0.02967750440290524 1:-1.23897 2:77.8159 3:0 
-0.03071936775458545 1:-1.3915 2:91.4199 3:0 
-0.01298996850103307 1:-1.69901 2:105.095 3:0 
-0.02799667230568895 1:-2.0665 2:118.88 3:0 
-0.03878578854733356 1:-1.44553 2:132.641 3:0 
-0.03938279533403283 1:-2.39187 2:146.211 3:0.1 
-1 1:-2.18376 2:5.78025 3:0.1 
-0.003697378925563635 1:-2.49244 2:25.7428 3:0 
-0.01935231387763582 1:-1.79981 2:58.8132 3:0 
-0.03004113951380059 1:-1.16843 2:72.5463 3:0 
-0.03216967084182805 1:-1.38478 2:83.3523 3:0 
-0.02971898716530274 1:-1.6451 2:93.2537 3:0 
-0.03693585200054217 1:-3.30947 2:106.726 3:0.1 
-0.02097680155324202 1:-2.3945 2:34.3034 3:0 
-0.02985899206338159 1:-2.46465 2:48.1801 3:0 
-0.03253447600894543 1:-2.50936 2:61.5949 3:0 
-0.01581185025127315 1:-2.51801 2:71.1967 3:0 
-0.02597920145225643 1:-2.84302 2:42.1473 3:0.1 
-0.60311189580806 1:-2.74709 2:14.5431 3:0.1 
-0.02953436670573546 1:-3.7214 2:19.4779 3:0.1 
-0.02360352541904274 1:-2.94858 2:22.2905 3:0.1 
-0.01937936313909397 1:-2.6111 2:17.9127 3:0.1 
-0.0403217577812201 1:-2.64067 2:766.058 3:0.6 
-1 1:-2.31299 2:1.50936 3:0.7 
-1 1:-2.44126 2:1.40615 3:0.8 
-1 1:-2.60764 2:1.58279 3:0.7 
-1 1:-2.4776 2:3.21435 3:0.4 
-1 1:-2.79547 2:1.06481 3:0.9 
-1 1:-2.29581 2:1.20407 3:0.9 
-1 1:-2.32533 2:1.30887 3:1 
-1 1:-2.22037 2:1.14421 3:1 
-1 1:-2.33725 2:1.23345 3:0.9 
-0.5365499203375804 1:-2.70249 2:1.82374 3:0.6 
-1 1:-2.21364 2:1.19298 3:1 
-1 1:-2.46686 2:2.77096 3:0.5 
-1 1:-2.69908 2:5.98371 3:0.8 
-1 1:-2.60192 2:1.95531 3:0.6 
-1 1:-2.82383 2:1.47105 3:0.9 
-1 1:-2.6647 2:1.80485 3:0.6 
-1 1:-2.53853 2:3.29184 3:0.3 
-1 1:-2.35319 2:4.31304 3:0.7 
-1 1:-2.56517 2:1.93491 3:0.4 
-1 1:-2.60374 2:1.473 3:0.8 
-1 1:-2.75298 2:2.89364 3:0.6 
-1 1:-2.39455 2:1.54622 3:1 
-1 1:-2.29141 2:1.54877 3:0.9 
-1 1:-2.25795 2:1.43547 3:1 
-0.3935944825215366 1:-2.54185 2:3.73968 3:0.2 
-1 1:-2.546 2:1.79466 3:0.5 
-0.1969557697875726 1:-2.81315 2:12.6151 3:0.8 
-1 1:-2.52273 2:1.62897 3:0.9 
-1 1:-2.60019 2:0.961579 3:0.9 
-0.6104560023493391 1:-2.66012 2:5.71681 3:0.6 
-1 1:-2.81919 2:1.38077 3:0.9 
