svm_type c_svc
kernel_type rbf
gamma 0.5
nr_class 2
total_sv 129
rho -0.811522
label 0 1
nr_sv 80 49
SV
1 1:-2.359795 2:0.631279 
1 1:-2.740003 2:0.392186 
1 1:-2.710157 2:0.286448 
1 1:-2.97271 2:0.136998 
1 1:-2.437997 2:0.160327 
1 1:-3.013668 2:0.478346 
1 1:-2.671297 2:0.182554 
1 1:-3.391688 2:0.394732 
1 1:-3.19162 2:2.193612 
0.08022639554728506 1:-3.309678 2:7.194195 
0.1349116786497104 1:-3.816305 2:20.25749 
0.123033061804063 1:-3.332284 2:37.7316 
0.1232621501876126 1:-3.402802 2:38.86019 
0.1546554519205793 1:-2.88761 2:27.967939 
1 1:-2.573994 2:0.497213 
1 1:-2.311111 2:0.624788 
0.9925276354590501 1:-2.823681 2:0.576318 
1 1:-2.658791 2:0.223241 
1 1:-2.543533 2:0.448336 
1 1:-2.483933 2:0.364271 
1 1:-2.374478 2:0.385843 
1 1:-2.42864 2:0.616967 
1 1:-2.372173 2:0.499765 
1 1:-2.50916 2:0.518844 
0.0009409967507593873 1:-2.3447 2:18.34789 
0.09603142127440881 1:-2.264264 2:13.071979 
1 1:-2.386596 2:0.60744 
1 1:-2.425413 2:0.208041 
0.04352956063164256 1:-2.260829 2:17.51921 
1 1:-2.364823 2:0.115372 
1 1:-2.759621 2:0.489929 
0.6021852862841526 1:-3.472656 2:0.360417 
1 1:-3.240025 2:0.453576 
0.4354765511668743 1:-3.276883 2:2.418917 
0.414971907646327 1:-3.198849 2:4.788285 
0.7618604747141818 1:-2.948261 2:9.444442 
0.3979410672306549 1:-3.087031 2:10.6837 
0.0425099975193971 1:-3.109008 2:12.57606 
0.07766703056600695 1:-3.259494 2:14.09308 
0.07017927711324055 1:-3.182398 2:17.21481 
0.05490772346828605 1:-3.120098 2:18.47567 
0.005083640621488556 1:-3.158888 2:21.07044 
0.07269513724172287 1:-3.137277 2:8.701581 
0.07286696632524595 1:-3.223674 2:15.58895 
1 1:-2.523016 2:0.343861 
1 1:-2.557322 2:0.553088 
1 1:-2.654387 2:0.107449 
1 1:-2.589359 2:0.134288 
1 1:-2.768313 2:0.327399 
1 1:-2.699747 2:0.147871 
1 1:-2.666453 2:0.509334 
0.6527861543905016 1:-2.704055 2:4.269656 
1 1:-2.913067 2:0.345564 
1 1:-2.807602 2:0.462853 
0.1045569841668387 1:-2.838682 2:487.21643 
0.1238559893030938 1:-2.511438 2:973.7008 
0.1238559893030939 1:-2.714469 2:974.8269 
0.104556984166839 1:-2.6759 2:487.86259 
1 1:-2.635572 2:0.60634 
1 1:-2.292294 2:0.642402 
0.06436502673798677 1:-2.198165 2:15.83234 
0.03545500877883874 1:-2.227624 2:17.07472 
0.1004964558063575 1:-2.231341 2:19.3333 
0.06290219024309657 1:-2.322681 2:20.91913 
0.11658302000014 1:-2.262407 2:22.16708 
0.0342401244615923 1:-2.214318 2:23.33954 
0.1386897347360746 1:-2.241153 2:24.26115 
0.1356093188658941 1:-2.319747 2:26.39806 
0.0150541498325445 1:-2.194373 2:3.863123 
0.015704675006998 1:-2.210937 2:5.917664 
0.08038962405845433 1:-2.213001 2:7.175176 
0.05869037101935125 1:-2.159218 2:14.55427 
1 1:-2.2926 2:0.525162 
1 1:-2.2839 2:0.448996 
1 1:-2.305809 2:0.608296 
0.05519522269274494 1:-2.199236 2:4.525614 
1 1:-2.344434 2:0.427854 
1 1:-2.385363 2:0.315443 
1 1:-2.210657 2:0.72927 
1 1:-2.45736 2:0.290775 
-1 1:-2.776725 2:1.542913 
-1 1:-2.560812 2:0.159783 
-1 1:-2.422072 2:0.118006 
-1 1:-2.400977 2:0.127605 
-1 1:-2.442117 2:0.088446 
-1 1:-2.584836 2:0.744728 
-1 1:-2.38418 2:0.580653 
-1 1:-2.946075 2:0.232715 
-1 1:-2.888716 2:0.096381 
-1 1:-2.515389 2:0.118926 
-1 1:-2.751717 2:0.164381 
-1 1:-2.761029 2:0.867011 
-1 1:-2.805951 2:0.885677 
-1 1:-2.788355 2:0.700433 
-1 1:-2.558211 2:0.158594 
-1 1:-2.926552 2:4.248907 
-1 1:-2.6839 2:0.14867 
-1 1:-2.541486 2:0.739871 
-1 1:-2.367877 2:0.359389 
-1 1:-2.310306 2:0.10016 
-1 1:-2.469242 2:0.093936 
-1 1:-2.668818 2:0.243237 
-1 1:-2.424583 2:0.756044 
-1 1:-2.413999 2:0.117171 
-1 1:-2.485958 2:0.173508 
-1 1:-2.531038 2:0.116686 
-1 1:-2.315027 2:0.115641 
-0.5348675837010175 1:-2.254019 2:0.115004 
-1 1:-2.295 2:0.115161 
-1 1:-2.303913 2:0.114747 
-1 1:-2.496718 2:0.11443 
-1 1:-2.385465 2:0.086615 
-1 1:-2.438108 2:0.095891 
-1 1:-2.377358 2:0.092068 
-1 1:-2.694084 2:0.09586 
-1 1:-2.580033 2:0.093969 
-1 1:-2.883013 2:0.277467 
-1 1:-3.302466 2:1.210421 
-1 1:-3.507129 2:9.730315 
-1 1:-3.209768 2:0.356012 
-1 1:-3.137385 2:1.324808 
-1 1:-3.237079 2:0.881281 
-1 1:-2.889228 2:0.272687 
-1 1:-2.226695 2:0.309639 
-0.2455828519921132 1:-2.035814 2:0.180166 
-1 1:-0.253858 2:0.089591 
-1 1:-2.485912 2:0.805863 
-1 1:-2.390699 2:0.596464 
-1 1:-1.341154 2:0.46712 
