svm_type c_svc
kernel_type rbf
gamma 0.5
nr_class 2
total_sv 94
rho -0.876409
label 0 1
nr_sv 58 36
SV
1 1:-2.359795 2:0.631279 
1 1:-2.740003 2:0.392186 
1 1:-2.710157 2:0.286448 
1 1:-2.97271 2:0.136998 
1 1:-2.437997 2:0.160327 
1 1:-3.013668 2:0.478346 
1 1:-2.671297 2:0.182554 
1 1:-2.778717 2:0.884753 
1 1:-3.391688 2:0.394732 
1 1:-3.126362 2:0.553723 
1 1:-3.19162 2:2.193612 
0.05484071957731385 1:-3.309678 2:7.194195 
0.06347538686423351 1:-3.816305 2:20.25749 
0.0809854395118787 1:-3.332284 2:37.7316 
0.08094629547649523 1:-3.402802 2:38.86019 
0.123748971848522 1:-2.88761 2:27.967939 
1 1:-2.954038 2:0.64975 
1 1:-2.573994 2:0.497213 
1 1:-2.311111 2:0.624788 
1 1:-2.823681 2:0.576318 
1 1:-2.56612 2:0.696577 
1 1:-2.658791 2:0.223241 
1 1:-2.543533 2:0.448336 
0.2903834629820896 1:-2.622749 2:4.554438 
0.3891744209329899 1:-2.538657 2:3.877079 
1 1:-2.483933 2:0.364271 
1 1:-2.374478 2:0.385843 
1 1:-2.42864 2:0.616967 
1 1:-2.372173 2:0.499765 
1 1:-2.50916 2:0.518844 
1 1:-2.590027 2:0.651741 
0.02312624366399636 1:-2.427908 2:6.588917 
0.04204112448403617 1:-2.355185 2:15.14428 
0.05372720437235808 1:-2.3447 2:18.34789 
0.06208059956028016 1:-2.325599 2:20.29944 
0.07743475012347671 1:-2.264264 2:13.071979 
1 1:-2.386596 2:0.60744 
1 1:-2.425413 2:0.208041 
0.04914577768455201 1:-2.264244 2:16.54241 
0.004113640518680012 1:-2.260829 2:17.51921 
1 1:-2.364823 2:0.115372 
1 1:-2.759621 2:0.489929 
0.5393722876969851 1:-3.472656 2:0.360417 
1 1:-3.240025 2:0.453576 
0.09886779142439635 1:-3.276883 2:2.418917 
0.4722281947772921 1:-3.198849 2:4.788285 
0.7358062224071658 1:-2.948261 2:9.444442 
0.3540249445361691 1:-3.087031 2:10.6837 
0.006273306950117375 1:-3.109008 2:12.57606 
0.0602866686922298 1:-3.259494 2:14.09308 
0.04249523038463125 1:-3.182398 2:17.21481 
0.03656049467668288 1:-3.120098 2:18.47567 
0.05228354889237783 1:-3.158888 2:21.07044 
0.05606970949779149 1:-3.137277 2:8.701581 
0.0006034241669400364 1:-3.052554 2:13.27393 
0.04315010900107774 1:-3.223674 2:15.58895 
0.9016312215196141 1:-3.141716 2:0.656103 
1 1:-3.204847 2:0.491542 
-1 1:-2.776725 2:1.542913 
-1 1:-2.560812 2:0.159783 
-1 1:-2.422072 2:0.118006 
-1 1:-2.400977 2:0.127605 
-1 1:-2.584836 2:0.744728 
-1 1:-2.38418 2:0.580653 
-1 1:-2.946075 2:0.232715 
-1 1:-2.888716 2:0.096381 
-1 1:-2.515389 2:0.118926 
-1 1:-2.751717 2:0.164381 
-1 1:-2.761029 2:0.867011 
-1 1:-2.805951 2:0.885677 
-1 1:-2.788355 2:0.700433 
-1 1:-2.558211 2:0.158594 
-1 1:-2.926552 2:4.248907 
-1 1:-2.6839 2:0.14867 
-1 1:-2.541486 2:0.739871 
-1 1:-2.367877 2:0.359389 
-1 1:-2.469242 2:0.093936 
-1 1:-2.668818 2:0.243237 
-1 1:-2.424583 2:0.756044 
-1 1:-2.413999 2:0.117171 
-1 1:-2.485958 2:0.173508 
-1 1:-2.531038 2:0.116686 
-0.600206277055605 1:-2.315027 2:0.115641 
-0.1946709151687683 1:-2.190035 2:0.11621 
-1 1:-2.496718 2:0.11443 
-1 1:-2.694084 2:0.09586 
-1 1:-2.580033 2:0.093969 
-1 1:-2.883013 2:0.277467 
-1 1:-3.302466 2:1.210421 
-1 1:-3.507129 2:9.730315 
-1 1:-3.209768 2:0.356012 
-1 1:-3.137385 2:1.324808 
-1 1:-3.237079 2:0.881281 
-1 1:-2.889228 2:0.272687 
